digraph Tree {
node [shape=box] ;
0 [label="X[0] <= 1.834\nentropy = 2.0\nsamples = 448\nvalue = [112, 112, 112, 112]"] ;
1 [label="X[1] <= 2.019\nentropy = 1.999\nsamples = 428\nvalue = [110, 109, 100, 109]"] ;
0 -> 1 [labeldistance=2.5, labelangle=45, headlabel="True"] ;
2 [label="X[1] <= 1.929\nentropy = 1.999\nsamples = 422\nvalue = [110, 105, 100, 107]"] ;
1 -> 2 ;
3 [label="X[1] <= -1.54\nentropy = 1.998\nsamples = 417\nvalue = [109, 105, 96, 107]"] ;
2 -> 3 ;
4 [label="X[0] <= -0.06\nentropy = 1.937\nsamples = 54\nvalue = [10, 14, 20, 10]"] ;
3 -> 4 ;
5 [label="X[0] <= -1.102\nentropy = 0.98\nsamples = 24\nvalue = [10, 14, 0, 0]"] ;
4 -> 5 ;
6 [label="entropy = 0.0\nsamples = 10\nvalue = [10, 0, 0, 0]"] ;
5 -> 6 ;
7 [label="entropy = 0.0\nsamples = 14\nvalue = [0, 14, 0, 0]"] ;
5 -> 7 ;
8 [label="X[0] <= 1.083\nentropy = 0.918\nsamples = 30\nvalue = [0, 0, 20, 10]"] ;
4 -> 8 ;
9 [label="X[0] <= 0.813\nentropy = 0.559\nsamples = 23\nvalue = [0, 0, 20, 3]"] ;
8 -> 9 ;
10 [label="entropy = 0.0\nsamples = 14\nvalue = [0, 0, 14, 0]"] ;
9 -> 10 ;
11 [label="X[1] <= -1.922\nentropy = 0.918\nsamples = 9\nvalue = [0, 0, 6, 3]"] ;
9 -> 11 ;
12 [label="entropy = 0.0\nsamples = 1\nvalue = [0, 0, 0, 1]"] ;
11 -> 12 ;
13 [label="X[0] <= 0.886\nentropy = 0.811\nsamples = 8\nvalue = [0, 0, 6, 2]"] ;
11 -> 13 ;
14 [label="entropy = 0.0\nsamples = 1\nvalue = [0, 0, 0, 1]"] ;
13 -> 14 ;
15 [label="X[1] <= -1.733\nentropy = 0.592\nsamples = 7\nvalue = [0, 0, 6, 1]"] ;
13 -> 15 ;
16 [label="entropy = 0.0\nsamples = 4\nvalue = [0, 0, 4, 0]"] ;
15 -> 16 ;
17 [label="X[1] <= -1.689\nentropy = 0.918\nsamples = 3\nvalue = [0, 0, 2, 1]"] ;
15 -> 17 ;
18 [label="entropy = 0.0\nsamples = 1\nvalue = [0, 0, 0, 1]"] ;
17 -> 18 ;
19 [label="entropy = 0.0\nsamples = 2\nvalue = [0, 0, 2, 0]"] ;
17 -> 19 ;
20 [label="entropy = 0.0\nsamples = 7\nvalue = [0, 0, 0, 7]"] ;
8 -> 20 ;
21 [label="X[0] <= -0.545\nentropy = 1.993\nsamples = 363\nvalue = [99, 91, 76, 97]"] ;
3 -> 21 ;
22 [label="X[1] <= 0.044\nentropy = 1.977\nsamples = 150\nvalue = [29, 33, 45, 43]"] ;
21 -> 22 ;
23 [label="X[1] <= -0.991\nentropy = 1.524\nsamples = 68\nvalue = [29, 9, 1, 29]"] ;
22 -> 23 ;
24 [label="X[0] <= -1.027\nentropy = 1.125\nsamples = 27\nvalue = [17, 9, 0, 1]"] ;
23 -> 24 ;
25 [label="X[0] <= -2.08\nentropy = 0.31\nsamples = 18\nvalue = [17, 0, 0, 1]"] ;
24 -> 25 ;
26 [label="entropy = 0.0\nsamples = 1\nvalue = [0, 0, 0, 1]"] ;
25 -> 26 ;
27 [label="entropy = 0.0\nsamples = 17\nvalue = [17, 0, 0, 0]"] ;
25 -> 27 ;
28 [label="entropy = 0.0\nsamples = 9\nvalue = [0, 9, 0, 0]"] ;
24 -> 28 ;
29 [label="X[0] <= -1.079\nentropy = 1.025\nsamples = 41\nvalue = [12, 0, 1, 28]"] ;
23 -> 29 ;
30 [label="X[1] <= -0.053\nentropy = 0.229\nsamples = 27\nvalue = [0, 0, 1, 26]"] ;
29 -> 30 ;
31 [label="entropy = 0.0\nsamples = 26\nvalue = [0, 0, 0, 26]"] ;
30 -> 31 ;
32 [label="entropy = 0.0\nsamples = 1\nvalue = [0, 0, 1, 0]"] ;
30 -> 32 ;
33 [label="X[0] <= -0.939\nentropy = 0.592\nsamples = 14\nvalue = [12, 0, 0, 2]"] ;
29 -> 33 ;
34 [label="X[0] <= -1.04\nentropy = 1.0\nsamples = 4\nvalue = [2, 0, 0, 2]"] ;
33 -> 34 ;
35 [label="entropy = 0.0\nsamples = 1\nvalue = [1, 0, 0, 0]"] ;
34 -> 35 ;
36 [label="X[0] <= -0.999\nentropy = 0.918\nsamples = 3\nvalue = [1, 0, 0, 2]"] ;
34 -> 36 ;
37 [label="entropy = 0.0\nsamples = 1\nvalue = [0, 0, 0, 1]"] ;
36 -> 37 ;
38 [label="X[0] <= -0.954\nentropy = 1.0\nsamples = 2\nvalue = [1, 0, 0, 1]"] ;
36 -> 38 ;
39 [label="entropy = 0.0\nsamples = 1\nvalue = [1, 0, 0, 0]"] ;
38 -> 39 ;
40 [label="entropy = 0.0\nsamples = 1\nvalue = [0, 0, 0, 1]"] ;
38 -> 40 ;
41 [label="entropy = 0.0\nsamples = 10\nvalue = [10, 0, 0, 0]"] ;
33 -> 41 ;
42 [label="X[1] <= 1.135\nentropy = 1.436\nsamples = 82\nvalue = [0, 24, 44, 14]"] ;
22 -> 42 ;
43 [label="X[0] <= -1.147\nentropy = 1.036\nsamples = 45\nvalue = [0, 1, 30, 14]"] ;
42 -> 43 ;
44 [label="X[1] <= 0.118\nentropy = 0.443\nsamples = 28\nvalue = [0, 1, 26, 1]"] ;
43 -> 44 ;
45 [label="X[1] <= 0.055\nentropy = 1.0\nsamples = 2\nvalue = [0, 0, 1, 1]"] ;
44 -> 45 ;
46 [label="entropy = 0.0\nsamples = 1\nvalue = [0, 0, 1, 0]"] ;
45 -> 46 ;
47 [label="entropy = 0.0\nsamples = 1\nvalue = [0, 0, 0, 1]"] ;
45 -> 47 ;
48 [label="X[1] <= 0.873\nentropy = 0.235\nsamples = 26\nvalue = [0, 1, 25, 0]"] ;
44 -> 48 ;
49 [label="entropy = 0.0\nsamples = 24\nvalue = [0, 0, 24, 0]"] ;
48 -> 49 ;
50 [label="X[1] <= 0.955\nentropy = 1.0\nsamples = 2\nvalue = [0, 1, 1, 0]"] ;
48 -> 50 ;
51 [label="entropy = 0.0\nsamples = 1\nvalue = [0, 1, 0, 0]"] ;
50 -> 51 ;
52 [label="entropy = 0.0\nsamples = 1\nvalue = [0, 0, 1, 0]"] ;
50 -> 52 ;
53 [label="X[1] <= 1.085\nentropy = 0.787\nsamples = 17\nvalue = [0, 0, 4, 13]"] ;
43 -> 53 ;
54 [label="X[1] <= 0.523\nentropy = 0.567\nsamples = 15\nvalue = [0, 0, 2, 13]"] ;
53 -> 54 ;
55 [label="entropy = 0.0\nsamples = 1\nvalue = [0, 0, 1, 0]"] ;
54 -> 55 ;
56 [label="X[0] <= -0.639\nentropy = 0.371\nsamples = 14\nvalue = [0, 0, 1, 13]"] ;
54 -> 56 ;
57 [label="entropy = 0.0\nsamples = 12\nvalue = [0, 0, 0, 12]"] ;
56 -> 57 ;
58 [label="X[0] <= -0.599\nentropy = 1.0\nsamples = 2\nvalue = [0, 0, 1, 1]"] ;
56 -> 58 ;
59 [label="entropy = 0.0\nsamples = 1\nvalue = [0, 0, 1, 0]"] ;
58 -> 59 ;
60 [label="entropy = 0.0\nsamples = 1\nvalue = [0, 0, 0, 1]"] ;
58 -> 60 ;
61 [label="entropy = 0.0\nsamples = 2\nvalue = [0, 0, 2, 0]"] ;
53 -> 61 ;
62 [label="X[0] <= -1.066\nentropy = 0.957\nsamples = 37\nvalue = [0, 23, 14, 0]"] ;
42 -> 62 ;
63 [label="entropy = 0.0\nsamples = 21\nvalue = [0, 21, 0, 0]"] ;
62 -> 63 ;
64 [label="X[0] <= -0.955\nentropy = 0.544\nsamples = 16\nvalue = [0, 2, 14, 0]"] ;
62 -> 64 ;
65 [label="X[0] <= -0.994\nentropy = 0.971\nsamples = 5\nvalue = [0, 2, 3, 0]"] ;
64 -> 65 ;
66 [label="entropy = 0.0\nsamples = 2\nvalue = [0, 0, 2, 0]"] ;
65 -> 66 ;
67 [label="X[1] <= 1.433\nentropy = 0.918\nsamples = 3\nvalue = [0, 2, 1, 0]"] ;
65 -> 67 ;
68 [label="entropy = 0.0\nsamples = 1\nvalue = [0, 1, 0, 0]"] ;
67 -> 68 ;
69 [label="X[0] <= -0.987\nentropy = 1.0\nsamples = 2\nvalue = [0, 1, 1, 0]"] ;
67 -> 69 ;
70 [label="entropy = 0.0\nsamples = 1\nvalue = [0, 1, 0, 0]"] ;
69 -> 70 ;
71 [label="entropy = 0.0\nsamples = 1\nvalue = [0, 0, 1, 0]"] ;
69 -> 71 ;
72 [label="entropy = 0.0\nsamples = 11\nvalue = [0, 0, 11, 0]"] ;
64 -> 72 ;
73 [label="X[1] <= 0.991\nentropy = 1.945\nsamples = 213\nvalue = [70, 58, 31, 54]"] ;
21 -> 73 ;
74 [label="X[0] <= 0.415\nentropy = 1.907\nsamples = 152\nvalue = [45, 57, 24, 26]"] ;
73 -> 74 ;
75 [label="X[1] <= 0.029\nentropy = 1.479\nsamples = 62\nvalue = [36, 14, 1, 11]"] ;
74 -> 75 ;
76 [label="X[0] <= 0.027\nentropy = 1.417\nsamples = 34\nvalue = [17, 14, 1, 2]"] ;
75 -> 76 ;
77 [label="X[1] <= -1.064\nentropy = 1.164\nsamples = 25\nvalue = [17, 6, 0, 2]"] ;
76 -> 77 ;
78 [label="entropy = 0.0\nsamples = 5\nvalue = [0, 5, 0, 0]"] ;
77 -> 78 ;
79 [label="X[1] <= -0.109\nentropy = 0.748\nsamples = 20\nvalue = [17, 1, 0, 2]"] ;
77 -> 79 ;
80 [label="entropy = 0.0\nsamples = 17\nvalue = [17, 0, 0, 0]"] ;
79 -> 80 ;
81 [label="X[0] <= -0.11\nentropy = 0.918\nsamples = 3\nvalue = [0, 1, 0, 2]"] ;
79 -> 81 ;
82 [label="entropy = 0.0\nsamples = 2\nvalue = [0, 0, 0, 2]"] ;
81 -> 82 ;
83 [label="entropy = 0.0\nsamples = 1\nvalue = [0, 1, 0, 0]"] ;
81 -> 83 ;
84 [label="X[1] <= -0.996\nentropy = 0.503\nsamples = 9\nvalue = [0, 8, 1, 0]"] ;
76 -> 84 ;
85 [label="entropy = 0.0\nsamples = 1\nvalue = [0, 0, 1, 0]"] ;
84 -> 85 ;
86 [label="entropy = 0.0\nsamples = 8\nvalue = [0, 8, 0, 0]"] ;
84 -> 86 ;
87 [label="X[0] <= -0.033\nentropy = 0.906\nsamples = 28\nvalue = [19, 0, 0, 9]"] ;
75 -> 87 ;
88 [label="X[0] <= -0.115\nentropy = 0.469\nsamples = 10\nvalue = [1, 0, 0, 9]"] ;
87 -> 88 ;
89 [label="entropy = 0.0\nsamples = 7\nvalue = [0, 0, 0, 7]"] ;
88 -> 89 ;
90 [label="X[0] <= -0.058\nentropy = 0.918\nsamples = 3\nvalue = [1, 0, 0, 2]"] ;
88 -> 90 ;
91 [label="entropy = 0.0\nsamples = 1\nvalue = [1, 0, 0, 0]"] ;
90 -> 91 ;
92 [label="entropy = 0.0\nsamples = 2\nvalue = [0, 0, 0, 2]"] ;
90 -> 92 ;
93 [label="entropy = 0.0\nsamples = 18\nvalue = [18, 0, 0, 0]"] ;
87 -> 93 ;
94 [label="X[1] <= -0.073\nentropy = 1.775\nsamples = 90\nvalue = [9, 43, 23, 15]"] ;
74 -> 94 ;
95 [label="X[0] <= 0.919\nentropy = 1.558\nsamples = 54\nvalue = [0, 16, 23, 15]"] ;
94 -> 95 ;
96 [label="X[1] <= -1.037\nentropy = 0.742\nsamples = 19\nvalue = [0, 15, 4, 0]"] ;
95 -> 96 ;
97 [label="entropy = 0.0\nsamples = 4\nvalue = [0, 0, 4, 0]"] ;
96 -> 97 ;
98 [label="entropy = 0.0\nsamples = 15\nvalue = [0, 15, 0, 0]"] ;
96 -> 98 ;
99 [label="X[1] <= -0.82\nentropy = 1.149\nsamples = 35\nvalue = [0, 1, 19, 15]"] ;
95 -> 99 ;
100 [label="X[0] <= 1.06\nentropy = 0.992\nsamples = 20\nvalue = [0, 1, 4, 15]"] ;
99 -> 100 ;
101 [label="X[0] <= 0.936\nentropy = 1.5\nsamples = 4\nvalue = [0, 1, 2, 1]"] ;
100 -> 101 ;
102 [label="entropy = 0.0\nsamples = 1\nvalue = [0, 0, 0, 1]"] ;
101 -> 102 ;
103 [label="X[1] <= -1.045\nentropy = 0.918\nsamples = 3\nvalue = [0, 1, 2, 0]"] ;
101 -> 103 ;
104 [label="entropy = 0.0\nsamples = 2\nvalue = [0, 0, 2, 0]"] ;
103 -> 104 ;
105 [label="entropy = 0.0\nsamples = 1\nvalue = [0, 1, 0, 0]"] ;
103 -> 105 ;
106 [label="X[1] <= -1.046\nentropy = 0.544\nsamples = 16\nvalue = [0, 0, 2, 14]"] ;
100 -> 106 ;
107 [label="X[1] <= -1.388\nentropy = 0.371\nsamples = 14\nvalue = [0, 0, 1, 13]"] ;
106 -> 107 ;
108 [label="X[0] <= 1.188\nentropy = 0.811\nsamples = 4\nvalue = [0, 0, 1, 3]"] ;
107 -> 108 ;
109 [label="entropy = 0.0\nsamples = 1\nvalue = [0, 0, 1, 0]"] ;
108 -> 109 ;
110 [label="entropy = 0.0\nsamples = 3\nvalue = [0, 0, 0, 3]"] ;
108 -> 110 ;
111 [label="entropy = 0.0\nsamples = 10\nvalue = [0, 0, 0, 10]"] ;
107 -> 111 ;
112 [label="X[1] <= -0.957\nentropy = 1.0\nsamples = 2\nvalue = [0, 0, 1, 1]"] ;
106 -> 112 ;
113 [label="entropy = 0.0\nsamples = 1\nvalue = [0, 0, 1, 0]"] ;
112 -> 113 ;
114 [label="entropy = 0.0\nsamples = 1\nvalue = [0, 0, 0, 1]"] ;
112 -> 114 ;
115 [label="entropy = 0.0\nsamples = 15\nvalue = [0, 0, 15, 0]"] ;
99 -> 115 ;
116 [label="X[0] <= 0.903\nentropy = 0.811\nsamples = 36\nvalue = [9, 27, 0, 0]"] ;
94 -> 116 ;
117 [label="X[1] <= 0.058\nentropy = 0.881\nsamples = 10\nvalue = [7, 3, 0, 0]"] ;
116 -> 117 ;
118 [label="entropy = 0.0\nsamples = 2\nvalue = [0, 2, 0, 0]"] ;
117 -> 118 ;
119 [label="X[0] <= 0.835\nentropy = 0.544\nsamples = 8\nvalue = [7, 1, 0, 0]"] ;
117 -> 119 ;
120 [label="entropy = 0.0\nsamples = 5\nvalue = [5, 0, 0, 0]"] ;
119 -> 120 ;
121 [label="X[0] <= 0.878\nentropy = 0.918\nsamples = 3\nvalue = [2, 1, 0, 0]"] ;
119 -> 121 ;
122 [label="entropy = 0.0\nsamples = 1\nvalue = [0, 1, 0, 0]"] ;
121 -> 122 ;
123 [label="entropy = 0.0\nsamples = 2\nvalue = [2, 0, 0, 0]"] ;
121 -> 123 ;
124 [label="X[1] <= 0.86\nentropy = 0.391\nsamples = 26\nvalue = [2, 24, 0, 0]"] ;
116 -> 124 ;
125 [label="X[0] <= 0.999\nentropy = 0.267\nsamples = 22\nvalue = [1, 21, 0, 0]"] ;
124 -> 125 ;
126 [label="X[0] <= 0.962\nentropy = 0.918\nsamples = 3\nvalue = [1, 2, 0, 0]"] ;
125 -> 126 ;
127 [label="entropy = 0.0\nsamples = 2\nvalue = [0, 2, 0, 0]"] ;
126 -> 127 ;
128 [label="entropy = 0.0\nsamples = 1\nvalue = [1, 0, 0, 0]"] ;
126 -> 128 ;
129 [label="entropy = 0.0\nsamples = 19\nvalue = [0, 19, 0, 0]"] ;
125 -> 129 ;
130 [label="X[1] <= 0.868\nentropy = 0.811\nsamples = 4\nvalue = [1, 3, 0, 0]"] ;
124 -> 130 ;
131 [label="entropy = 0.0\nsamples = 1\nvalue = [1, 0, 0, 0]"] ;
130 -> 131 ;
132 [label="entropy = 0.0\nsamples = 3\nvalue = [0, 3, 0, 0]"] ;
130 -> 132 ;
133 [label="X[0] <= 0.925\nentropy = 1.499\nsamples = 61\nvalue = [25, 1, 7, 28]"] ;
73 -> 133 ;
134 [label="X[0] <= -0.246\nentropy = 0.885\nsamples = 36\nvalue = [1, 0, 7, 28]"] ;
133 -> 134 ;
135 [label="entropy = 0.0\nsamples = 6\nvalue = [0, 0, 6, 0]"] ;
134 -> 135 ;
136 [label="X[1] <= 1.844\nentropy = 0.42\nsamples = 30\nvalue = [1, 0, 1, 28]"] ;
134 -> 136 ;
137 [label="X[1] <= 1.03\nentropy = 0.216\nsamples = 29\nvalue = [1, 0, 0, 28]"] ;
136 -> 137 ;
138 [label="X[0] <= 0.582\nentropy = 0.722\nsamples = 5\nvalue = [1, 0, 0, 4]"] ;
137 -> 138 ;
139 [label="entropy = 0.0\nsamples = 4\nvalue = [0, 0, 0, 4]"] ;
138 -> 139 ;
140 [label="entropy = 0.0\nsamples = 1\nvalue = [1, 0, 0, 0]"] ;
138 -> 140 ;
141 [label="entropy = 0.0\nsamples = 24\nvalue = [0, 0, 0, 24]"] ;
137 -> 141 ;
142 [label="entropy = 0.0\nsamples = 1\nvalue = [0, 0, 1, 0]"] ;
136 -> 142 ;
143 [label="X[1] <= 1.067\nentropy = 0.242\nsamples = 25\nvalue = [24, 1, 0, 0]"] ;
133 -> 143 ;
144 [label="entropy = 0.0\nsamples = 1\nvalue = [0, 1, 0, 0]"] ;
143 -> 144 ;
145 [label="entropy = 0.0\nsamples = 24\nvalue = [24, 0, 0, 0]"] ;
143 -> 145 ;
146 [label="X[0] <= 0.763\nentropy = 0.722\nsamples = 5\nvalue = [1, 0, 4, 0]"] ;
2 -> 146 ;
147 [label="entropy = 0.0\nsamples = 4\nvalue = [0, 0, 4, 0]"] ;
146 -> 147 ;
148 [label="entropy = 0.0\nsamples = 1\nvalue = [1, 0, 0, 0]"] ;
146 -> 148 ;
149 [label="X[0] <= -0.5\nentropy = 0.918\nsamples = 6\nvalue = [0, 4, 0, 2]"] ;
1 -> 149 ;
150 [label="entropy = 0.0\nsamples = 4\nvalue = [0, 4, 0, 0]"] ;
149 -> 150 ;
151 [label="entropy = 0.0\nsamples = 2\nvalue = [0, 0, 0, 2]"] ;
149 -> 151 ;
152 [label="X[1] <= 0.149\nentropy = 1.595\nsamples = 20\nvalue = [2, 3, 12, 3]"] ;
0 -> 152 [labeldistance=2.5, labelangle=-45, headlabel="False"] ;
153 [label="X[1] <= -1.142\nentropy = 0.722\nsamples = 15\nvalue = [0, 0, 12, 3]"] ;
152 -> 153 ;
154 [label="entropy = 0.0\nsamples = 3\nvalue = [0, 0, 0, 3]"] ;
153 -> 154 ;
155 [label="entropy = 0.0\nsamples = 12\nvalue = [0, 0, 12, 0]"] ;
153 -> 155 ;
156 [label="X[1] <= 1.231\nentropy = 0.971\nsamples = 5\nvalue = [2, 3, 0, 0]"] ;
152 -> 156 ;
157 [label="entropy = 0.0\nsamples = 3\nvalue = [0, 3, 0, 0]"] ;
156 -> 157 ;
158 [label="entropy = 0.0\nsamples = 2\nvalue = [2, 0, 0, 0]"] ;
156 -> 158 ;
}